/* Generated by Edge Impulse
*
* Permission is hereby granted, free of charge, to any person obtaining a copy
* of this software and associated documentation files (the "Software"), to deal
* in the Software without restriction, including without limitation the rights
* to use, copy, modify, merge, publish, distribute, sublicense, and/or sell
* copies of the Software, and to permit persons to whom the Software is
* furnished to do so, subject to the following conditions:
*
* The above copyright notice and this permission notice shall be included in
* all copies or substantial portions of the Software.
*
* THE SOFTWARE IS PROVIDED "AS IS", WITHOUT WARRANTY OF ANY KIND, EXPRESS OR
* IMPLIED, INCLUDING BUT NOT LIMITED TO THE WARRANTIES OF MERCHANTABILITY,
* FITNESS FOR A PARTICULAR PURPOSE AND NONINFRINGEMENT. IN NO EVENT SHALL THE
* AUTHORS OR COPYRIGHT HOLDERS BE LIABLE FOR ANY CLAIM, DAMAGES OR OTHER
* LIABILITY, WHETHER IN AN ACTION OF CONTRACT, TORT OR OTHERWISE, ARISING FROM,
* OUT OF OR IN CONNECTION WITH THE SOFTWARE OR THE USE OR OTHER DEALINGS IN THE
* SOFTWARE.
*/
// Generated on: 04.12.2021 16:34:10

#include <stdio.h>
#include <stdlib.h>
#include <vector>
#include "edge-impulse-sdk/tensorflow/lite/c/builtin_op_data.h"
#include "edge-impulse-sdk/tensorflow/lite/c/common.h"
#include "edge-impulse-sdk/tensorflow/lite/micro/micro_mutable_op_resolver.h"
#include "edge-impulse-sdk/porting/ei_classifier_porting.h"

#if EI_CLASSIFIER_PRINT_STATE
#if defined(__cplusplus) && EI_C_LINKAGE == 1
extern "C" {
    extern void ei_printf(const char *format, ...);
}
#else
extern void ei_printf(const char *format, ...);
#endif
#endif

#if defined __GNUC__
#define ALIGN(X) __attribute__((aligned(X)))
#elif defined _MSC_VER
#define ALIGN(X) __declspec(align(X))
#elif defined __TASKING__
#define ALIGN(X) __align(X)
#endif

using namespace tflite;
using namespace tflite::ops;
using namespace tflite::ops::micro;

namespace {

constexpr int kTensorArenaSize = 624;

#if defined(EI_CLASSIFIER_ALLOCATION_STATIC)
uint8_t tensor_arena[kTensorArenaSize] ALIGN(16);
#elif defined(EI_CLASSIFIER_ALLOCATION_STATIC_HIMAX)
#pragma Bss(".tensor_arena")
uint8_t tensor_arena[kTensorArenaSize] ALIGN(16);
#pragma Bss()
#elif defined(EI_CLASSIFIER_ALLOCATION_STATIC_HIMAX_GNU)
uint8_t tensor_arena[kTensorArenaSize] ALIGN(16) __attribute__((section(".tensor_arena")));
#else
#define EI_CLASSIFIER_ALLOCATION_HEAP 1
uint8_t* tensor_arena = NULL;
#endif

static uint8_t* tensor_boundary;
static uint8_t* current_location;

template <int SZ, class T> struct TfArray {
  int sz; T elem[SZ];
};
enum used_operators_e {
  OP_FULLY_CONNECTED, OP_SOFTMAX,  OP_LAST
};
struct TensorInfo_t { // subset of TfLiteTensor used for initialization from constant memory
  TfLiteAllocationType allocation_type;
  void* data;
  TfLiteIntArray* dims;
  size_t bytes;
};
struct NodeInfo_t { // subset of TfLiteNode used for initialization from constant memory
  struct TfLiteIntArray* inputs;
  struct TfLiteIntArray* outputs;
  void* builtin_data;
  used_operators_e used_op_index;
};

TfLiteContext ctx{};
TfLiteTensor tflTensors[14];
TfLiteEvalTensor tflEvalTensors[14];
TfLiteRegistration registrations[OP_LAST];
TfLiteNode tflNodes[5];

const TfArray<2, int> tensor_dimension0 = { 2, { 1,66 } };
const ALIGN(8) float tensor_data1[30] = { -0.1755378395318985, 0.38246256113052368, 0.50498741865158081, -0.034412708133459091, 0.1692945808172226, 0.13146781921386719, 0.32463023066520691, -0.089734889566898346, -0.065384164452552795, -0.139903724193573, -0.040510118007659912, 0.33733817934989929, 0.86392199993133545, 0.0087174894288182259, 0.92469513416290283, -0.11376266181468964, 0.04853631928563118, 0.33305719494819641, -0.05261177197098732, -0.237468421459198, 0.00010948190902126953, -0.073188945651054382, -0.10223616659641266, 0.03813992440700531, -0.17272555828094482, -0.11364801228046417, -0.29423269629478455, -0.26219701766967773, -0.11751513928174973, 0.079654417932033539, };
const TfArray<1, int> tensor_dimension1 = { 1, { 30 } };
const ALIGN(8) float tensor_data2[20] = { 0.36503574252128601, 0.036774918437004089, -0.11971241235733032, 0.023802667856216431, -0.23543792963027954, -0.082985438406467438, -0.055321779102087021, -0.097847729921340942, 0.32164955139160156, 0.27033248543739319, -0.039054136723279953, -0.12227198481559753, 0.70945441722869873, 0.053263530135154724, 0.31719538569450378, -0.15198105573654175, 0.33230790495872498, -0.17092202603816986, 0.40695023536682129, 0.16322112083435059, };
const TfArray<1, int> tensor_dimension2 = { 1, { 20 } };
const ALIGN(8) float tensor_data3[10] = { -0.1029369980096817, 0.089628271758556366, -0.27503228187561035, -0.099591575562953949, -0.0036763208918273449, 0.47255298495292664, 0.081942334771156311, 0.19887372851371765, 0, 0.39214444160461426, };
const TfArray<1, int> tensor_dimension3 = { 1, { 10 } };
const ALIGN(8) float tensor_data4[6] = { -0.31988826394081116, -0.14863361418247223, 0.44696441292762756, 0.34057486057281494, -0.44039934873580933, -0.084787823259830475, };
const TfArray<1, int> tensor_dimension4 = { 1, { 6 } };
const ALIGN(8) float tensor_data5[30*66] = { 
  -0.41497692465782166, -0.45163226127624512, -0.24566030502319336, 0.16595444083213806, -0.27505394816398621, -0.0080011487007141113, 0.036844313144683838, -0.26956138014793396, -0.44995200634002686, -0.10932637006044388, 0.19369547069072723, -0.4568847119808197, 0.16675589978694916, -0.025220420211553574, -0.22346031665802002, 0.15585899353027344, -0.14287376403808594, 0.078759312629699707, -0.11915025860071182, -0.13928177952766418, -0.37012305855751038, -0.23625272512435913, 0.28774946928024292, 0.4596458375453949, 0.27183747291564941, 0.23989492654800415, 0.19082649052143097, -0.099397599697113037, 0.16209501028060913, 0.59660971164703369, 0.43246671557426453, 0.32799452543258667, 0.047267083078622818, -0.36032509803771973, -0.015436390414834023, -0.300087571144104, -0.20222018659114838, -0.3265717625617981, -0.10432048141956329, -0.27854034304618835, -0.041536055505275726, -0.0040876828134059906, -0.1034943014383316, -0.2548542320728302, -0.023069735616445541, -0.24194139242172241, -0.30881184339523315, -0.30121570825576782, -0.1951262503862381, -0.26802906394004822, 0.0047992006875574589, -0.17727504670619965, -0.014701005071401596, 0.14404554665088654, 0.099848195910453796, -0.25897273421287537, -0.17617450654506683, 0.0054846988059580326, -0.18824085593223572, 0.00067035673419013619, 0.13050949573516846, -0.046948708593845367, -0.013963750563561916, -0.05142519623041153, -0.066820196807384491, -0.04358411580324173, 
  -0.019837720319628716, 0.10868116468191147, -0.12003646045923233, 0.025921046733856201, 0.15741920471191406, 0.17267096042633057, 0.16244715452194214, -0.12225992977619171, -0.12826444208621979, -0.23020921647548676, -0.13487301766872406, 0.11202723532915115, 0.19979345798492432, 0.25356215238571167, -0.064439922571182251, 0.063448838889598846, 0.079023838043212891, -0.17208766937255859, 0.23994831740856171, -0.036927685141563416, 0.31815087795257568, 0.127426877617836, -0.083921976387500763, -0.070446401834487915, -0.32308641076087952, -0.10745050758123398, -0.33279639482498169, -0.1024509072303772, 0.050445556640625, -0.39512935280799866, -0.40687394142150879, -0.43163400888442993, -0.018484916538000107, 0.06487920880317688, 0.38215106725692749, 0.20334281027317047, 0.33136361837387085, -0.059538956731557846, 0.21898339688777924, -0.21188819408416748, 0.24504680931568146, -0.028800813481211662, 0.14437441527843475, 0.095323391258716583, 0.081762567162513733, -0.10730049014091492, -0.083247408270835876, -0.11813449859619141, -0.071345493197441101, 0.28729602694511414, 0.02685234509408474, -0.17749606072902679, 0.10762298107147217, -0.077841319143772125, -0.15711814165115356, 0.05034487321972847, 0.058797787874937057, -0.16229535639286041, 0.25904527306556702, -0.16224820911884308, 0.088528163731098175, 0.089308097958564758, -0.22152450680732727, -0.33030152320861816, -0.12174404412508011, 0.094301715493202209, 
  0.10409244149923325, 0.1370375007390976, 0.069733865559101105, 0.19047492742538452, -0.23585343360900879, -0.10766565799713135, 0.024732530117034912, -0.076803535223007202, -0.24581211805343628, 0.14345459640026093, -0.22769919037818909, 0.13040640950202942, 0.16530585289001465, -0.093005076050758362, -0.034656703472137451, 0.22148323059082031, -0.11042636632919312, -0.028320908546447754, -0.16734248399734497, 0.15262125432491302, -0.20139394700527191, -0.11854514479637146, 0.12857811152935028, -0.25297296047210693, 0.019501306116580963, -0.027501702308654785, -0.15568184852600098, -0.057598352432250977, -0.0092464685440063477, 0.1454518586397171, -0.025934413075447083, 0.08902200311422348, 0.21055710315704346, 0.063611529767513275, 0.20592257380485535, -0.12676051259040833, 0.3462582528591156, 0.12877427041530609, 0.012297691777348518, 0.10018970817327499, 0.034234210848808289, -0.19159875810146332, 0.041859153658151627, -0.099608182907104492, -0.068327687680721283, 0.40365615487098694, 0.20222616195678711, -0.12473281472921371, -0.12586909532546997, 0.05480576679110527, 0.10781336575746536, -0.064113683998584747, -0.24840556085109711, 0.040183600038290024, -0.15723849833011627, 0.17910896241664886, 0.2815927267074585, 0.091007649898529053, 0.20875316858291626, -0.092490553855895996, -0.13858145475387573, 0.061314698308706284, -0.1441594660282135, -0.045359749346971512, 0.098529018461704254, 0.086701616644859314, 
  -0.30597761273384094, -0.006108525674790144, 0.045090124011039734, -0.016573736444115639, -0.22068807482719421, -0.0486183762550354, 0.21196788549423218, 0.19797427952289581, -0.0013370665255934, -0.14888587594032288, -0.21037989854812622, -0.20944790542125702, 0.17124949395656586, 0.1373303234577179, -0.16372321546077728, 0.10234818607568741, -0.034123003482818604, 0.19714832305908203, -0.14526034891605377, 0.14961399137973785, -0.064062990248203278, 0.18544547259807587, -0.27058878540992737, 0.092787347733974457, -0.018270483240485191, -0.16234117746353149, -0.0077811460942029953, -0.077317476272583008, -0.057708024978637695, -0.14534613490104675, -0.2272946834564209, -0.20259381830692291, 0.075050301849842072, 0.16729922592639923, -0.20581945776939392, -0.088644556701183319, -0.29446801543235779, 0.085418261587619781, -0.071138784289360046, -0.29031872749328613, -0.27437841892242432, -0.048934832215309143, 0.087724275887012482, -0.067163132131099701, -0.13703246414661407, 0.17884178459644318, 0.030799489468336105, 0.19208753108978271, -0.060129962861537933, 0.055683217942714691, -0.23544614017009735, 0.029915971681475639, -0.17699269950389862, 0.20907087624073029, -0.18193168938159943, 0.064358949661254883, 0.091674253344535828, 0.063800729811191559, -0.18035347759723663, -0.23967255651950836, -0.091204918920993805, 0.076075814664363861, 0.13489976525306702, 0.09502827376127243, -0.25768089294433594, 0.076584368944168091, 
  -0.17310389876365662, -0.41635873913764954, -0.046893011778593063, 0.021395545452833176, -0.28457525372505188, 0.15285813808441162, 0.07582557201385498, -0.42389950156211853, -0.22442203760147095, -0.32583436369895935, -0.030508104711771011, -0.45618835091590881, 0.026350002735853195, -0.17419391870498657, -0.10047817230224609, -0.14230811595916748, -0.026978909969329834, 0.0097117424011230469, -0.097151681780815125, -0.30364969372749329, -0.22202204167842865, -0.24768123030662537, 0.25452351570129395, 0.4240783154964447, 0.48285996913909912, 0.21812993288040161, 0.077717944979667664, -0.00066030025482177734, -0.16192686557769775, 0.096859157085418701, 0.30246269702911377, 0.45509761571884155, 0.30481323599815369, -0.13257400691509247, -0.38254737854003906, 0.019432341679930687, -0.058268807828426361, -0.31355413794517517, -0.18244743347167969, 0.17828114330768585, -0.23448050022125244, 0.10681445896625519, -0.17839093506336212, -0.31575667858123779, -0.054536450654268265, 0.34964832663536072, -0.31986430287361145, 0.15958572924137115, -0.15695774555206299, -0.065052621066570282, -0.08028227835893631, 0.18603856861591339, -0.017257580533623695, -0.013371292501688004, 0.12533535063266754, -0.17334423959255219, 0.049189552664756775, 0.055855702608823776, -0.34299057722091675, -0.24351198971271515, -0.12561976909637451, 0.39482688903808594, -0.20818981528282166, 0.078113868832588196, -0.21521566808223724, -0.0028038669843226671, 
  -0.041892938315868378, 0.06031465157866478, -0.2407868355512619, -0.16514706611633301, -0.043918576091527939, -0.12229436635971069, -0.20616048574447632, -0.34876802563667297, 0.030857101082801819, -0.30820924043655396, -0.0063742967322468758, -0.17043145000934601, 0.14875207841396332, 0.14992065727710724, -0.23051899671554565, 0.060470461845397949, -0.16752201318740845, -0.072551071643829346, -0.15895219147205353, -0.032004624605178833, 0.031818360090255737, -0.30020219087600708, 0.31410327553749084, 0.3122924268245697, 0.24499544501304626, 0.32445955276489258, 0.033934939652681351, 0.20857012271881104, 0.2114909291267395, 0.23893354833126068, 0.42235854268074036, 0.013097059912979603, 0.082422621548175812, 0.13519406318664551, -0.098421454429626465, 0.068765915930271149, -0.18181955814361572, 0.059154372662305832, -0.089262768626213074, -0.019917391240596771, 0.016803083941340446, -0.078814767301082611, 0.023143365979194641, -0.056797884404659271, 0.055859163403511047, -0.30495041608810425, -0.26343220472335815, 0.094572179019451141, -0.25160098075866699, -0.22421112656593323, -0.40520301461219788, -0.11648011207580566, 0.082511469721794128, 0.23900890350341797, 0.048260238021612167, 0.098043054342269897, 0.16604271531105042, -0.29592272639274597, -0.079001240432262421, 0.088181272149085999, 0.070967957377433777, 0.10558951646089554, -0.060140330344438553, 0.080880746245384216, 0.047947969287633896, -0.078057825565338135, 
  0.053948730230331421, 0.446186363697052, 0.18072298169136047, 0.05267682671546936, 0.13428251445293427, -0.1180039644241333, 0.13269281387329102, 0.29522567987442017, 0.032631486654281616, 0.11187410354614258, 0.086955741047859192, 0.57761687040328979, 0.1756310760974884, 0.062929384410381317, -0.030372679233551025, -0.11198520660400391, 0.062716782093048096, 0.094362258911132812, 0.52801269292831421, 0.73419511318206787, 0.64361810684204102, 0.3061908483505249, -0.17116871476173401, -0.2068655788898468, -0.36609107255935669, -0.33299651741981506, -0.33904784917831421, 0.065233886241912842, -0.21531844139099121, -0.59747564792633057, -0.41984507441520691, -0.26640811562538147, -0.11563777923583984, 0.22777837514877319, 0.30717185139656067, 0.076699256896972656, 0.050939284265041351, 0.26580742001533508, 0.10800396651029587, 0.0046064034104347229, 0.17135526239871979, -0.030068784952163696, -0.081618092954158783, 0.036238763481378555, 0.20477244257926941, 0.35407117009162903, 0.072065971791744232, 0.14835134148597717, 0.11732420325279236, 0.1252000480890274, 0.076388560235500336, 0.1724114865064621, 0.17414890229701996, 0.23435549437999725, 0.023389626294374466, 0.21013198792934418, 0.26861956715583801, 0.26484605669975281, 0.47475868463516235, 0.17806729674339294, -0.086480826139450073, 0.047996725887060165, 0.35781756043434143, -0.036332745105028152, 0.2782999575138092, 0.12517678737640381, 
  0.063557498157024384, 0.053016878664493561, -0.0063684163615107536, 0.24494093656539917, 0.062030404806137085, 0.17590373754501343, -0.1926037073135376, 0.16057759523391724, -0.037105463445186615, 0.027335327118635178, 0.022865530103445053, 0.068407684564590454, 0.075203388929367065, 0.24296319484710693, -0.17462934553623199, 0.16308155655860901, -0.039263606071472168, -0.029779493808746338, 0.10953890532255173, 0.18033690750598907, -0.17981898784637451, 0.10786055028438568, -0.038382187485694885, -0.071313723921775818, -0.10567600280046463, 0.083547629415988922, 0.12523576617240906, -0.19201040267944336, 0.15567278861999512, 0.29692256450653076, 0.30028551816940308, 0.26606521010398865, 0.10582209378480911, -0.10802122205495834, 0.089790225028991699, -0.033505477011203766, 0.17220722138881683, -0.10219844430685043, 0.31377333402633667, 0.16479548811912537, 0.065839841961860657, 0.019910762086510658, 0.24412967264652252, 0.25086453557014465, 0.16576677560806274, -0.12403573840856552, -0.076505020260810852, 0.19025427103042603, -0.028202593326568604, -0.13914011418819427, 0.1767084151506424, -0.18066667020320892, 0.21683874726295471, -0.23440933227539062, 0.19748389720916748, 0.015340185724198818, -0.10373431444168091, 0.12627823650836945, -0.12588053941726685, 0.016640534624457359, -0.091258831322193146, -0.044729262590408325, -0.095295347273349762, 0.37528550624847412, -0.1164456233382225, -0.080832839012145996, 
  -0.0060653863474726677, -0.064454436302185059, -0.25162637233734131, 0.12330743670463562, -0.10476462543010712, -0.16798883676528931, -0.19467020034790039, -0.29147183895111084, -0.074021980166435242, -0.11439498513936996, -0.22685660421848297, -0.13571427762508392, 0.13019528985023499, -0.077232100069522858, 0.0029557084199041128, 0.0036778119392693043, -0.10509014129638672, -0.20745384693145752, 0.032693631947040558, 0.022482387721538544, -0.11135619133710861, 0.044305112212896347, 0.030206210911273956, -0.023180384188890457, -0.16335342824459076, -0.14247724413871765, -0.04851420596241951, -0.085911691188812256, -0.17367881536483765, -0.19266906380653381, -0.08121451735496521, -0.2881874144077301, -0.22481465339660645, -0.031154757365584373, -0.2335796058177948, -0.2324502021074295, -0.12288753688335419, -0.21697033941745758, 0.029112473130226135, -0.28546303510665894, -0.087855026125907898, -0.12021931260824203, 0.18532995879650116, 0.14548173546791077, -0.29457581043243408, 0.13236558437347412, -0.30382737517356873, 0.041816238313913345, 0.070154152810573578, -0.21843808889389038, 0.19050970673561096, -0.16695335507392883, 0.17825926840305328, -0.16495014727115631, -0.09331078827381134, -0.1748700886964798, 0.13087338209152222, -0.20227579772472382, 0.048249483108520508, -0.18796393275260925, 0.11205346882343292, 0.14194940030574799, -0.14502759277820587, -0.041129056364297867, -0.13546767830848694, 0.17839676141738892, 
  -0.23382115364074707, -0.10885097086429596, -0.12954710423946381, -0.034507662057876587, -0.10494915395975113, -0.21209579706192017, -0.044015884399414062, -0.32176521420478821, -0.37360122799873352, -0.37789785861968994, -0.12928305566310883, -0.31021022796630859, 0.20125949382781982, -0.035546779632568359, -0.15662652254104614, 0.21486741304397583, 0.18888241052627563, 0.23090648651123047, -0.60796582698822021, -0.67137175798416138, -0.68320733308792114, -0.49863156676292419, -0.048169218003749847, 0.33232232928276062, 0.36901986598968506, 0.11211544275283813, 0.41216194629669189, -0.19232422113418579, 0.12804973125457764, 0.47754845023155212, 0.18499001860618591, 0.32602378726005554, 0.14463676512241364, -0.43627172708511353, 0.062208995223045349, -0.2557651698589325, -0.072255693376064301, -0.21599119901657104, -0.10031754523515701, 0.043131981045007706, -0.52089709043502808, -0.41274368762969971, -0.19522026181221008, -0.22572819888591766, 0.11228227615356445, 0.0060574240051209927, 0.0067998687736690044, -0.028286432847380638, -0.27948927879333496, -0.2537294328212738, -0.20262779295444489, 0.13610124588012695, 0.11559958755970001, 0.20233911275863647, -0.18462677299976349, -0.18383373320102692, -0.38707756996154785, 0.062254130840301514, -0.35304343700408936, -0.31487908959388733, -0.19548465311527252, 0.14858700335025787, -0.47469383478164673, -0.11353281140327454, -0.15469950437545776, 0.28080201148986816, 
  -0.1450275331735611, -0.096090309321880341, -0.11699699610471725, 0.10768308490514755, 0.16566883027553558, -0.19768440723419189, 0.16681307554244995, -0.047975488007068634, 0.1179705485701561, 0.1946481466293335, -0.19770507514476776, 0.04231681302189827, -0.076718449592590332, 0.21301424503326416, 0.013065934181213379, -0.1803479790687561, -0.10779714584350586, -0.22481715679168701, 0.30093878507614136, 0.075474359095096588, 0.42657360434532166, 0.1620151698589325, -0.091686487197875977, -0.23483270406723022, -0.26784610748291016, -0.12283359467983246, -0.19933220744132996, 0.24145764112472534, 0.19823449850082397, -0.36883902549743652, -0.008141910657286644, -0.045948278158903122, -0.2051091343164444, 0.14301440119743347, -0.13750077784061432, 0.20339371263980865, 0.14025932550430298, 0.072112560272216797, 0.16358208656311035, -0.046335536986589432, -0.075287096202373505, -0.14254365861415863, -0.2749493420124054, -0.073200568556785583, 0.2133762389421463, -0.077069036662578583, -0.12197808176279068, -0.12074721604585648, -0.111531101167202, -0.010018382221460342, -0.053157057613134384, 0.16717419028282166, 0.097390502691268921, 0.12611928582191467, 0.18717719614505768, 0.17290554940700531, -0.15941384434700012, -0.061273563653230667, -0.06554904580116272, 0.16475951671600342, 0.11750344932079315, -0.065520234405994415, 0.075650967657566071, -0.037946783006191254, 0.22761225700378418, -0.051512982696294785, 
  0.095106981694698334, -0.10117363184690475, -0.15881721675395966, 0.24671424925327301, 0.077116906642913818, -0.19929045438766479, 0.23130190372467041, -0.23895129561424255, -0.087181486189365387, -0.27426353096961975, 0.046318411827087402, -0.34890329837799072, 0.19026452302932739, -0.017120778560638428, -0.096033036708831787, -0.13864022493362427, 0.17317706346511841, 0.061971902847290039, 0.017771126702427864, -0.16533198952674866, -0.39553764462471008, -0.37045148015022278, -0.094888031482696533, 0.24187289178371429, 0.27419489622116089, 0.17228561639785767, -0.1048932671546936, 0.043942093849182129, -0.24483507871627808, -0.13177426159381866, 0.045884992927312851, 0.066219918429851532, 0.0020347756799310446, 0.045945357531309128, -0.1179468110203743, -0.22281044721603394, 0.12723463773727417, -0.34177479147911072, 0.044932976365089417, -0.25154915452003479, -0.18522550165653229, -0.24611371755599976, -0.060094691812992096, -0.2081885039806366, 0.11262154579162598, 0.29126015305519104, 0.059416446834802628, 0.081792637705802917, -0.069623172283172607, 0.078556492924690247, -0.033303644508123398, -0.19972711801528931, -0.14541999995708466, 0.16432854533195496, -0.12349779158830643, -0.33928623795509338, -0.024636890739202499, -0.3106587827205658, 0.1348964124917984, -0.31184571981430054, -0.11961602419614792, -0.22999133169651031, -0.28141215443611145, 0.085483580827713013, -0.13106067478656769, -0.30872267484664917, 
  0.22932252287864685, -0.24647870659828186, -0.19092394411563873, 0.055591702461242676, 0.06591874361038208, -0.15479308366775513, 0.22874635457992554, -0.10891325026750565, -0.22580446302890778, 0.082842700183391571, -0.27930569648742676, 0.44669678807258606, -0.23611104488372803, 0.16647160053253174, -0.049600839614868164, 0.04872816801071167, -0.20573186874389648, 0.02559196949005127, 0.046491213142871857, -0.18180964887142181, 0.13917528092861176, -0.219532310962677, 0.50035184621810913, 0.041443534195423126, -0.16627466678619385, -0.1209149956703186, 0.22708481550216675, -0.045281410217285156, 0.043204784393310547, -0.10473176836967468, -0.15058130025863647, -0.10324065387248993, -0.066680848598480225, 0.29045450687408447, 0.05113539844751358, -0.22331298887729645, 0.31096121668815613, 0.11572485417127609, -0.072640120983123779, 0.1091073602437973, -0.26604455709457397, -0.31421738862991333, -0.12307271361351013, -0.25748923420906067, 0.23489585518836975, 0.34643346071243286, -0.24595145881175995, 0.23087464272975922, 0.014878243207931519, 0.0080183017998933792, 0.14040148258209229, -0.10454490780830383, -0.17656910419464111, 0.012520216405391693, -0.069527767598628998, 0.23925091326236725, 0.042885836213827133, -0.040957234799861908, -0.0076688453555107117, 0.055683605372905731, 0.11867070943117142, -0.31185796856880188, -0.040948610752820969, -0.01105748675763607, -0.31987738609313965, 0.11854029446840286, 
  0.17197816073894501, -0.068936780095100403, 0.32817783951759338, -0.038595583289861679, 0.012857797555625439, 0.037751555442810059, 0.18494290113449097, -0.030141554772853851, 0.29898232221603394, 0.23952701687812805, 0.04172944650053978, 0.2086462527513504, 0.095220208168029785, -0.20993195474147797, 0.038266971707344055, 0.085699908435344696, -0.24367499351501465, 0.016066789627075195, 0.31573209166526794, 0.31202039122581482, 0.053587924689054489, 0.23857681453227997, -0.019842410460114479, -0.031954303383827209, -0.099300101399421692, -0.22603277862071991, -0.26751804351806641, -0.044925987720489502, 0.16393029689788818, -0.49896830320358276, -0.28959730267524719, -0.47708803415298462, -0.1650073230266571, 0.31454265117645264, -0.042704313993453979, 0.30442130565643311, 0.34489119052886963, 0.28602984547615051, 0.15310139954090118, -0.21651917695999146, 0.086278378963470459, -0.022721085697412491, -0.040285259485244751, 0.12524028122425079, 0.1494964063167572, -0.099828504025936127, 0.26410499215126038, 0.033337127417325974, 0.10014303028583527, 0.10297103226184845, -0.028967069461941719, 0.035481628030538559, -0.12021823227405548, 0.12432022392749786, -0.14734837412834167, 0.082343824207782745, 0.25831004977226257, 0.26969775557518005, 0.073122546076774597, -0.08407110720872879, -0.12313973903656006, -0.31214523315429688, 0.093019343912601471, -0.11099996417760849, 0.237566277384758, 0.076232112944126129, 
  0.69420021772384644, -0.21325384080410004, -0.1650901734828949, 0.18667985498905182, 0.12168879061937332, 0.046712219715118408, -0.091090917587280273, -0.025525767356157303, -0.23676919937133789, -0.23277030885219574, -0.034469250589609146, 0.78262901306152344, -0.14000113308429718, 0.010644093155860901, 0.10272312164306641, 0.055662810802459717, 0.14131104946136475, 0.21426594257354736, -0.050426322966814041, -0.023335197940468788, 0.036512158811092377, -0.098805740475654602, 1.0773427486419678, -0.12846240401268005, 0.034856155514717102, -0.18126726150512695, -0.083453714847564697, -0.20199310779571533, 0.17084586620330811, -0.26464888453483582, -0.045090790838003159, 0.16568946838378906, 0.20723934471607208, 0.72502577304840088, 0.29473179578781128, 0.024731030687689781, 0.13022550940513611, 0.27089884877204895, -0.060837838798761368, -0.013339878059923649, -0.22386875748634338, -0.042332980781793594, -0.041347566992044449, -0.056694936007261276, 0.75986498594284058, 0.27201882004737854, 0.048810992389917374, 0.30620172619819641, 0.43195173144340515, 0.28404128551483154, 0.2546457052230835, 0.052766047418117523, -0.078143931925296783, -0.06367289274930954, -0.091433219611644745, 0.65966808795928955, 0.16239704191684723, 0.071164324879646301, 0.37325480580329895, 0.32269656658172607, -0.013875157572329044, 0.0034275506623089314, -0.18097586929798126, -0.018149189651012421, -0.26514443755149841, 0.29319357872009277, 
  -0.12996870279312134, 0.031196506693959236, 0.14111903309822083, 0.092344403266906738, -0.1490786075592041, -0.0047855973243713379, 0.19904541969299316, -0.16376914083957672, -0.11369403451681137, 0.18600258231163025, -0.17265185713768005, 0.16265581548213959, 0.23399081826210022, -0.039384391158819199, -0.081003144383430481, -0.048406142741441727, -0.11196553707122803, 0.041850686073303223, 0.16786174476146698, 0.15957792103290558, -0.15303504467010498, 0.080366142094135284, 0.20638684928417206, 0.20793221890926361, -0.0080095343291759491, 0.28784897923469543, 0.22960056364536285, 0.06365668773651123, 0.1959608793258667, -0.011674750596284866, 0.20723441243171692, 0.20838838815689087, -0.02668352797627449, 0.033633992075920105, -0.033272497355937958, -0.034344274550676346, -0.0034184744581580162, 0.13634687662124634, -0.027962325140833855, 0.096854932606220245, 0.18037450313568115, 0.27492845058441162, -0.020897502079606056, 0.069081388413906097, -0.079515896737575531, -0.0047535477206110954, -0.026497721672058105, -0.079240128397941589, 0.13020527362823486, -0.083448067307472229, 0.25369003415107727, 0.20964047312736511, -0.18886359035968781, -0.18395586311817169, 0.30575665831565857, 0.03813440352678299, -0.051756627857685089, -0.057287726551294327, 0.15581499040126801, -0.032176148146390915, -0.14631621539592743, -0.1796891838312149, -0.13084647059440613, -0.0064024133607745171, -0.20384225249290466, -0.12600353360176086, 
  -0.094174526631832123, 0.10283711552619934, 0.20985168218612671, 0.16494366526603699, 0.061838306486606598, -0.11545068025588989, 0.076578915119171143, -0.021904557943344116, 0.017286363989114761, 0.41671723127365112, 0.073116935789585114, 0.12159375101327896, -0.30805915594100952, -0.025657765567302704, -0.25738447904586792, -0.21419377624988556, 0.15362673997879028, -0.12134099006652832, 0.0105007728561759, -0.087669558823108673, 0.00086785160237923265, -0.20171661674976349, -0.035364460200071335, -0.37885060906410217, -0.39094105362892151, -0.14888019859790802, -0.06556277722120285, 0.0081084966659545898, -0.14134663343429565, -0.40248605608940125, -0.28334274888038635, -0.10429786890745163, 0.041236069053411484, 0.01849626749753952, 0.31896227598190308, -0.17673808336257935, 0.037239201366901398, -0.17648643255233765, -0.14090944826602936, -0.053744476288557053, -0.20650972425937653, -0.076035633683204651, 0.13214567303657532, -0.26658061146736145, -0.006075677927583456, -0.13690303266048431, 0.25667786598205566, 0.1685638427734375, 0.22262252867221832, -0.093567460775375366, -0.12185784429311752, -0.0096823861822485924, 0.059900440275669098, 0.056000024080276489, 0.17497381567955017, -0.036678358912467957, 0.092600665986537933, -0.13908235728740692, -0.084898069500923157, -0.048115167766809464, -0.35256284475326538, -0.16444563865661621, 0.12482084333896637, -0.0084467940032482147, 0.17930246889591217, 0.10783923417329788, 
  0.092015407979488373, 0.029720403254032135, 0.0083210747689008713, 0.30742961168289185, 0.1202617883682251, 0.19727051258087158, 0.019686043262481689, 0.097602441906929016, 0.27500712871551514, 0.13271623849868774, -0.031269114464521408, -0.1116509810090065, -0.17033258080482483, -0.12611095607280731, -0.12344732880592346, -0.09728289395570755, 0.21810561418533325, 0.17182266712188721, 0.20900475978851318, 0.14120060205459595, 0.1240316703915596, -0.20122762024402618, -0.036805588752031326, -0.10734238475561142, -0.11307089775800705, -0.094572380185127258, -0.15482005476951599, -0.22160547971725464, -0.18756604194641113, -0.50407505035400391, -0.10143472999334335, -0.080489352345466614, -0.1335405558347702, 0.2676088809967041, 0.37458094954490662, 0.26550820469856262, 0.44631537795066833, 0.042855426669120789, -0.069766059517860413, -0.16951210796833038, 0.22443416714668274, 0.079259395599365234, 0.17044655978679657, 0.041775304824113846, 0.012794313952326775, 0.36881893873214722, 0.1346132755279541, 0.39551553130149841, -0.10756821930408478, 0.22237406671047211, 0.37002575397491455, -0.0010147677967324853, 0.13939201831817627, 0.16616986691951752, -0.24906642735004425, 0.099362082779407501, 0.25726455450057983, 0.31796479225158691, -0.034750912338495255, 0.31917399168014526, 0.056520506739616394, -0.28812766075134277, 0.37247002124786377, 0.00013818716979585588, 0.30528461933135986, -0.16868752241134644, 
  -0.21617986261844635, 0.047903899103403091, 0.17451430857181549, 0.05250861868262291, -0.066256947815418243, 0.10295850038528442, -0.061879158020019531, 0.19335871934890747, 0.14534889161586761, -0.29948145151138306, 0.12052473425865173, -0.097663342952728271, -0.20560210943222046, -0.030207514762878418, -0.21457493305206299, -0.13181531429290771, -0.15795224905014038, -0.21212178468704224, -0.11137982457876205, -0.046685401350259781, 0.090077362954616547, -0.15497134625911713, -0.026787806302309036, 0.033872805535793304, 0.07353665679693222, -0.38710719347000122, -0.01109214685857296, -0.20317435264587402, 0.071263372898101807, -0.10779628157615662, 0.15745972096920013, 0.076144762337207794, 0.083830758929252625, -0.28596508502960205, -0.23690058290958405, -0.21375143527984619, 0.04099738597869873, -0.24311190843582153, 0.041936773806810379, 0.031777158379554749, -0.016441026702523232, -0.16786593198776245, -0.21752524375915527, 0.19535480439662933, -0.23527604341506958, -0.036462791264057159, 0.095299914479255676, -0.20801733434200287, -0.06403108686208725, -0.22503705322742462, -0.21718902885913849, 0.07616618275642395, 0.088875956833362579, -0.14202946424484253, 0.089110009372234344, -0.13302046060562134, -0.28810802102088928, 0.059162173420190811, 0.017589263617992401, -0.10684839636087418, -0.17862105369567871, -0.28607580065727234, -0.18404462933540344, 0.044146180152893066, -0.00035460502840578556, 0.19199171662330627, 
  -0.23840641975402832, -0.11030182242393494, -0.047427207231521606, 0.067136019468307495, 0.081920653581619263, 0.12444061040878296, 0.22402584552764893, -0.27828627824783325, -0.21217143535614014, -0.18920667469501495, 0.10561437904834747, 0.20346148312091827, 0.12240667641162872, 0.22651977837085724, 0.10063595324754715, 0.17397023737430573, 0.16805177927017212, -0.084348857402801514, 0.30344244837760925, 0.2147914320230484, -0.16899165511131287, 0.020455401390790939, 0.21677117049694061, 0.34171277284622192, 0.42669549584388733, 0.069324895739555359, 0.022713856771588326, -0.10612392425537109, 0.23000627756118774, 0.31735366582870483, 0.27840656042098999, 0.17679592967033386, 0.024704242125153542, -0.072797253727912903, -0.025165248662233353, 0.22450581192970276, -0.28512141108512878, -0.21138076484203339, -0.19314961135387421, 0.10797704011201859, -0.031295124441385269, 0.23209981620311737, -0.12116504460573196, 0.28209972381591797, 0.1638551652431488, 0.035791005939245224, -0.21062952280044556, -0.28818145394325256, -0.060220696032047272, -0.022544160485267639, 0.066720254719257355, 0.22653754055500031, -0.036122690886259079, -0.0026915161870419979, 0.23849445581436157, -0.039156336337327957, -0.29281094670295715, -0.21459126472473145, -0.023093355819582939, -0.041968602687120438, -0.065111778676509857, 0.22011992335319519, -0.2950705885887146, -0.15397661924362183, -0.07537977397441864, -0.10350163280963898, 
  -0.12187377363443375, -0.16255137324333191, 0.0431639663875103, 0.014064284041523933, -0.083107084035873413, 0.034236371517181396, 0.22339558601379395, 0.28649455308914185, 0.28767013549804688, 0.069662757217884064, 0.22557969391345978, 0.23437058925628662, -0.10877092182636261, -0.074832133948802948, 0.27597701549530029, -0.17139686644077301, -0.14412039518356323, -0.17894214391708374, -0.023128654807806015, -0.13321590423583984, -0.14830060303211212, -0.16280108690261841, -0.0044059930369257927, -0.043509054929018021, -0.019327828660607338, -0.28546831011772156, 0.046968843787908554, 0.011909365653991699, 0.12775975465774536, -0.085159227252006531, -0.22564561665058136, -0.016715677455067635, -0.032282620668411255, 0.24700573086738586, -0.18495634198188782, 0.005715295672416687, 0.12263597548007965, 0.074573352932929993, -0.042881514877080917, 0.22485983371734619, -0.090039759874343872, 0.13211464881896973, -0.10200247913599014, -0.065102733671665192, 0.1339649111032486, -0.21778744459152222, 0.22258098423480988, -0.033200331032276154, 0.059122037142515182, 0.073871493339538574, 0.22321242094039917, -0.20886896550655365, 0.12422899156808853, 0.1408078521490097, 0.0029277554713189602, -0.21448966860771179, 0.14081987738609314, 0.11634179204702377, 0.024312697350978851, 0.13520693778991699, -0.20747597515583038, -0.0091746766120195389, 0.022453861311078072, -0.16853304207324982, 0.07983863353729248, 0.15662097930908203, 
  -0.021509991958737373, -0.011126339435577393, 0.051307439804077148, 0.24278652667999268, 0.2027280330657959, 0.19039410352706909, 0.13095593452453613, 0.14440108835697174, -0.26972076296806335, -0.21954458951950073, -0.17149527370929718, 0.10429007560014725, 0.06691347062587738, 0.099683336913585663, -0.20855824649333954, 0.056423481553792953, -0.13915324211120605, -0.05176854133605957, -0.13682834804058075, 0.14374791085720062, 0.21862617135047913, -0.20690770447254181, -0.31610289216041565, -0.2865079939365387, 0.043570924550294876, 0.13294677436351776, -0.1914178729057312, -0.073098242282867432, 0.0098224282264709473, -0.30170479416847229, -0.02972579188644886, -0.093369081616401672, -0.22107243537902832, -0.13551425933837891, -0.29689428210258484, 0.16611756384372711, -0.11130537837743759, 0.13981200754642487, -0.12913484871387482, 0.031643439084291458, -0.065158352255821228, 0.070381492376327515, -0.15673442184925079, 0.12122113257646561, -0.21129807829856873, 0.025175733491778374, -0.29377254843711853, -0.19937829673290253, -0.18842616677284241, -0.12844252586364746, -0.23862937092781067, 0.075944945216178894, -0.23933979868888855, -0.20133745670318604, -0.21888616681098938, 0.12999306619167328, -0.036535799503326416, 0.10185017436742783, -0.13838525116443634, -0.27009400725364685, -0.091780051589012146, -0.0049266503192484379, -0.33079579472541809, -0.26324057579040527, 0.14258642494678497, -0.11144417524337769, 
  -0.26751202344894409, 0.12056192755699158, 0.077969379723072052, -0.079451858997344971, -0.058627188205718994, -0.035318195819854736, -0.082945942878723145, -0.11767329275608063, -0.053376782685518265, 0.18472370505332947, -0.24595350027084351, -0.027847399935126305, -0.28495028614997864, -0.24094948172569275, -0.092845939099788666, -0.0037177172489464283, 0.20661091804504395, -0.18219190835952759, -0.01529487781226635, -0.082486733794212341, 0.20855243504047394, -0.12260119616985321, -0.21827115118503571, -0.33882713317871094, -0.23098036646842957, -0.31068801879882812, 0.079180106520652771, 0.053616225719451904, -0.020666301250457764, -0.14842905104160309, 0.062856674194335938, -0.21037416160106659, -0.24298408627510071, -0.10324560850858688, -0.007799424696713686, -0.22448606789112091, 0.099890455603599548, 0.15525995194911957, 0.034821722656488419, 0.060332771390676498, -0.25963211059570312, 0.040287263691425323, 0.057137064635753632, 0.14514172077178955, -0.0068777762353420258, 0.057585109025239944, 0.15461531281471252, -0.21816752851009369, 0.22725614905357361, -0.19237397611141205, -0.13252030313014984, 0.044140476733446121, -0.083129115402698517, 0.0093219876289367676, -0.1528567373752594, -0.041551142930984497, 0.26907432079315186, -0.16707859933376312, -0.19799913465976715, -0.085619442164897919, 0.010265792720019817, -0.19603453576564789, 0.20733495056629181, 0.20461066067218781, -0.014398857019841671, -0.20517101883888245, 
  -0.018654009327292442, -0.010222821496427059, 0.13884611427783966, 0.016196316108107567, 0.11364349722862244, 0.075408041477203369, 0.0013587474822998047, 0.28310057520866394, 0.1738763153553009, 0.10502729564905167, -0.091528438031673431, -0.056697357445955276, 0.20564271509647369, -0.17181763052940369, 0.44315958023071289, 0.087098076939582825, 0.22699987888336182, 0.1364789605140686, 0.26402649283409119, -0.034273698925971985, 0.2570020854473114, 0.1379883736371994, -0.06692177802324295, -0.03930363804101944, -0.26436564326286316, 0.067358918488025665, -0.05319613590836525, -0.016371250152587891, 0.13524794578552246, -0.31626775860786438, 0.012154293246567249, -0.15018159151077271, 0.18371342122554779, -0.099379181861877441, -0.027804730460047722, -0.0030057861004024744, -0.049123011529445648, 0.11193811148405075, 0.19415383040904999, -0.050515167415142059, -0.12349947541952133, 0.28073441982269287, -0.076435089111328125, 0.23082470893859863, -0.21623900532722473, -0.20052318274974823, 0.12938424944877625, -0.13762356340885162, -0.10836167633533478, 0.2415120005607605, -0.15132996439933777, -0.0078678140416741371, 0.092045977711677551, 0.032533064484596252, -0.16259433329105377, -0.039532728493213654, 0.20723102986812592, 0.13496001064777374, 0.29577744007110596, 0.25345373153686523, -0.18177534639835358, -0.23985607922077179, 0.093359962105751038, -0.076764032244682312, -0.13471856713294983, 0.15952290594577789, 
  -0.044509280472993851, 0.071303583681583405, -0.11848565936088562, -0.16964361071586609, -0.1813197135925293, 0.023731470108032227, 0.081536471843719482, -0.24827347695827484, -0.24942758679389954, -0.21079131960868835, -0.19504871964454651, -0.3323291540145874, -0.024879833683371544, -0.0086942305788397789, -0.071538515388965607, 0.11654219031333923, -0.11253225803375244, -0.18317121267318726, 0.12784165143966675, -0.089094445109367371, -0.24137789011001587, 0.016335716471076012, -0.106406569480896, -0.12928594648838043, 0.36777228116989136, -0.075123079121112823, 0.20755550265312195, -0.1951560378074646, -0.065993547439575195, 0.13343961536884308, 0.42393383383750916, -0.061527978628873825, 0.16090691089630127, -0.33847475051879883, -0.14348290860652924, -0.017786135897040367, -0.27167338132858276, -0.24191492795944214, 0.030202973634004593, 0.13202372193336487, -0.044808190315961838, -0.15188838541507721, 0.15229493379592896, -0.056437056511640549, -0.26828309893608093, -0.35773205757141113, -0.19085025787353516, -0.21300879120826721, -0.079387038946151733, -0.22161808609962463, -0.096715889871120453, -0.056757338345050812, 0.21050117909908295, 0.10506132990121841, 0.1205764040350914, -0.017255222424864769, -0.13082511723041534, -0.2144383043050766, -0.36046406626701355, -0.2593618631362915, 0.0069028208963572979, 0.14514069259166718, 0.071400269865989685, -0.158051997423172, -0.045517720282077789, -0.036923766136169434, 
  -0.21055522561073303, -0.14628107845783234, -0.087762467563152313, 0.29116880893707275, 0.15896211564540863, -0.034226298332214355, -0.12143659591674805, 0.019543079659342766, -0.21348085999488831, 0.14222703874111176, -0.10533945262432098, 0.089061304926872253, 0.20914089679718018, 0.058150887489318848, -0.047946274280548096, -0.19867295026779175, 0.11339104175567627, 0.14937096834182739, 0.094268098473548889, -0.020863741636276245, 0.18177002668380737, -0.24996007978916168, -0.028791839256882668, 0.0070866383612155914, 0.20114225149154663, -0.10028901696205139, -0.087279707193374634, -0.14322495460510254, 0.13406091928482056, 0.032628793269395828, -0.103435218334198, 0.33865457773208618, 0.039978474378585815, -0.11091159284114838, -0.20381519198417664, 0.0080033466219902039, 0.03661109134554863, -0.12620541453361511, 0.16489611566066742, -0.20916979014873505, -0.11050503700971603, -0.28734588623046875, -0.012589620426297188, 0.077614054083824158, 0.047301106154918671, -0.32437077164649963, -0.29092708230018616, -0.12427658587694168, -0.28451433777809143, -0.11514053493738174, 0.0317794568836689, -0.094061858952045441, 0.094324924051761627, 0.0041530169546604156, 0.048652186989784241, -0.13065819442272186, 0.1499871164560318, -0.11583686619997025, -0.34380292892456055, 0.25962117314338684, 0.16140188276767731, 0.12725867331027985, -0.1435011625289917, 0.0039261518977582455, 0.22222791612148285, 0.028393149375915527, 
  0.018610633909702301, -0.054890114814043045, -0.33321258425712585, 0.021230444312095642, -0.033091161400079727, -0.029924154281616211, -0.20508593320846558, -0.45792236924171448, -0.42815962433815002, -0.45805466175079346, -0.035586025565862656, -0.23495781421661377, -0.087484598159790039, -0.11657142639160156, 0.22778481245040894, 0.18606370687484741, 0.0047730207443237305, -0.053063690662384033, -0.38512355089187622, -0.21753866970539093, -0.51611846685409546, -0.28411874175071716, 0.083010010421276093, 0.36084827780723572, 0.6160808801651001, 0.044249806553125381, 0.44078466296195984, 0.2410312294960022, -0.13278168439865112, 0.53446769714355469, 0.60592478513717651, 0.59903061389923096, 0.40507116913795471, 0.042841259390115738, -0.16330373287200928, -0.088578678667545319, -0.20933423936367035, -0.41887083649635315, 0.04645054042339325, -0.082034580409526825, -0.39448854327201843, -0.2531566321849823, -0.1035662516951561, -0.15386010706424713, -0.1692090630531311, -0.21513590216636658, -0.30821409821510315, -0.40552705526351929, -0.029437964782118797, -0.055731985718011856, -0.10882913321256638, 0.095089778304100037, 0.081840641796588898, 0.12820284068584442, -0.052559003233909607, -0.32720467448234558, -0.28097584843635559, -0.12400557845830917, -0.089306876063346863, -0.096337199211120605, 0.054206289350986481, 0.43254217505455017, -0.3639991283416748, -0.27974537014961243, -0.30603387951850891, 0.32841569185256958, 
  -0.044894300401210785, -0.51679855585098267, -0.51891887187957764, -0.12340144068002701, -0.24860420823097229, -0.14219897985458374, 0.15558522939682007, -0.22396524250507355, -0.43088072538375854, -0.4185655415058136, -0.072805978357791901, -0.3389739990234375, -0.037610173225402832, -0.19315698742866516, -0.23762375116348267, -0.20121562480926514, -0.21462744474411011, -0.17455130815505981, -0.060965199023485184, -0.025553902611136436, 0.042443670332431793, -0.13993515074253082, 0.14102905988693237, 0.036765430122613907, 0.51761710643768311, 0.010172082111239433, 0.25603848695755005, 0.15783733129501343, -0.16315346956253052, 0.68679654598236084, 0.55432778596878052, 0.61120188236236572, 0.21307666599750519, -0.26705694198608398, -0.43679714202880859, 0.085087008774280548, -0.27944031357765198, -0.20106886327266693, -0.10246210545301437, -0.20775417983531952, 0.050198022276163101, 0.10343447327613831, -0.25451603531837463, -0.13197261095046997, -0.34055113792419434, -0.17581973969936371, -0.3813534677028656, -0.080997176468372345, 0.024065133184194565, -0.095833092927932739, -0.22373853623867035, -0.057354707270860672, 0.18494886159896851, 0.13055485486984253, -0.059144221246242523, -0.40890330076217651, -0.093047492206096649, 0.0087743569165468216, -0.49316689372062683, -0.28530079126358032, -0.23808868229389191, -0.058446064591407776, -0.43580055236816406, -0.38521882891654968, -0.38593381643295288, 0.15185637772083282, 
  -0.064692117273807526, 0.12948662042617798, 0.088505379855632782, 0.093740105628967285, -0.049158692359924316, -0.066997170448303223, -0.24464559555053711, -0.28355848789215088, -0.20929877460002899, -0.25341767072677612, -0.064754895865917206, -0.075836248695850372, -0.048767145723104477, 0.14229825139045715, -0.057114448398351669, 0.23665724694728851, 0.21891146898269653, 0.1855352520942688, 0.21894975006580353, 0.0046714167110621929, 0.10344428569078445, 0.15717314183712006, 0.052955754101276398, -0.0193775724619627, -0.1499127596616745, -0.11588095128536224, -0.037804633378982544, -0.24332576990127563, 0.16457080841064453, 0.084077730774879456, 0.03502354770898819, -0.051954645663499832, 0.15929439663887024, -0.048910953104496002, -0.036860276013612747, -0.20232231914997101, -0.093669675290584564, -0.01408520620316267, 0.04155968502163887, 0.017718097195029259, 0.048683337867259979, 0.1448729932308197, 0.16047133505344391, 0.088141314685344696, -0.030385682359337807, -0.28601527214050293, 0.014956326223909855, -0.25678563117980957, 0.18724535405635834, 0.090257517993450165, 0.037517663091421127, -0.16096985340118408, -0.066358275711536407, -0.19601133465766907, 0.2137993723154068, -0.36727297306060791, -0.075356490910053253, -0.14857394993305206, 0.020565448328852654, -0.10063088685274124, -0.19770084321498871, -0.11126924306154251, -0.1062089279294014, 0.080413162708282471, -0.36577427387237549, -0.1641516238451004, 
  0.10242217779159546, 0.16875684261322021, -0.21882443130016327, -0.0076924562454223633, -0.093805968761444092, 0.21884733438491821, 0.0079255104064941406, 0.2559325098991394, 0.055349692702293396, 0.27195480465888977, 0.11776050925254822, -0.26870220899581909, -0.23870283365249634, -0.12710785865783691, -0.081950053572654724, -0.27740493416786194, -0.18334728479385376, -0.004744410514831543, 0.15445524454116821, -0.30351665616035461, 0.01791653223335743, 0.21226672828197479, -0.018427424132823944, 0.097005598247051239, 0.24396109580993652, 0.23037815093994141, -0.076721556484699249, -0.10235011577606201, 0.14192855358123779, -0.10464964807033539, 0.20713342726230621, 0.23966126143932343, 0.15318894386291504, 0.19938245415687561, -0.14597326517105103, -0.073678247630596161, -0.23696127533912659, 0.17632821202278137, 0.13660793006420135, -0.11184416711330414, -0.059306934475898743, 0.076216273009777069, 0.19957302510738373, 0.15181295573711395, -0.1436450183391571, 0.088032037019729614, 0.032330498099327087, -0.12490373104810715, 0.027460258454084396, -0.18858844041824341, 0.14073364436626434, 0.081509329378604889, -0.13959811627864838, -0.0054213250987231731, -0.1582438051700592, 0.087712377309799194, 0.080135457217693329, 0.042331662029027939, 0.061828482896089554, 0.18490901589393616, 0.096994109451770782, 0.17854976654052734, -0.064740918576717377, 0.27095675468444824, -0.10630698502063751, 0.27310314774513245, 
};
const TfArray<2, int> tensor_dimension5 = { 2, { 30,66 } };
const ALIGN(8) float tensor_data6[20*30] = { 
  -0.21396240592002869, 0.075311146676540375, 0.28846850991249084, -0.10121377557516098, -0.26637044548988342, -0.11103648692369461, 0.28122439980506897, -0.099157392978668213, -0.3030363917350769, -0.11153922230005264, 0.23500199615955353, -0.23182512819766998, 0.16482190787792206, 0.30490931868553162, 0.29014405608177185, -0.17814347147941589, 0.093297719955444336, 0.2813783586025238, 0.33950209617614746, 0.23691661655902863, -0.11472215503454208, -0.32009202241897583, -0.1765238344669342, 0.10394144803285599, -0.23898395895957947, -0.30202010273933411, 0.23914365470409393, -0.1272050142288208, 0.015295124612748623, 0.19537636637687683, 
  -0.24034267663955688, -0.22342599928379059, 0.065196305513381958, 0.20013426244258881, -0.12048478424549103, 0.032553758472204208, -0.10789143294095993, -0.27590259909629822, -0.18416912853717804, 0.13151654601097107, 0.090175308287143707, 0.008867243304848671, -0.085676491260528564, -0.12255920469760895, -0.011291828937828541, -0.21877488493919373, 0.18336260318756104, -0.029197296127676964, 0.20750950276851654, -0.14984048902988434, -0.34967431426048279, 0.17156943678855896, 0.2680429220199585, 0.013648513704538345, 0.021292116492986679, 0.25697323679924011, -0.002136636758223176, 0.10232823342084885, -0.052309390157461166, 0.083069987595081329, 
  -0.30352923274040222, 0.15256451070308685, 0.19974492490291595, 0.168892502784729, 0.19533996284008026, -0.24968521296977997, 0.048365127295255661, 0.15248106420040131, -0.010734672658145428, -0.33913472294807434, 0.27080166339874268, -0.042641241103410721, 0.11582140624523163, -0.22834193706512451, -0.19854146242141724, 0.21719667315483093, 0.050845496356487274, -0.18430405855178833, 0.2960018515586853, -0.020640060305595398, 0.15725281834602356, 0.022985275834798813, 0.24877196550369263, 0.092103973031044006, -0.0015623146900907159, -0.21407601237297058, 0.04483790323138237, 0.23847103118896484, -0.02401404082775116, 0.02853311225771904, 
  -0.18047259747982025, -0.26198813319206238, -0.052798051387071609, 0.14757066965103149, 0.34820562601089478, 0.2875787615776062, 0.0015344482380896807, -0.14094819128513336, 0.0087776826694607735, 0.15436249971389771, -0.22175730764865875, 0.2769412100315094, 0.012642655521631241, -0.1935093104839325, -0.019638122990727425, 0.094804927706718445, -0.19878754019737244, 0.016461124643683434, 0.19992391765117645, 0.070181697607040405, -0.31414803862571716, -0.27487903833389282, 0.12006816267967224, -0.22997115552425385, -0.087627187371253967, -0.10666099935770035, -0.16254879534244537, 0.068256564438343048, 0.016919182613492012, 0.040111429989337921, 
  0.053650554269552231, -0.23873111605644226, -0.42831316590309143, -0.10959538817405701, -0.17513693869113922, 0.024582855403423309, -0.26382696628570557, -0.063351072371006012, -0.20597472786903381, 0.34188246726989746, 0.22073031961917877, 0.090433090925216675, 0.16746462881565094, 0.0063384473323822021, 0.0057005672715604305, 0.25124159455299377, -0.14747491478919983, -0.19773615896701813, 0.015616285614669323, 0.28998845815658569, 0.16298940777778625, -0.2273821085691452, -0.060394462198019028, -0.080226458609104156, -0.28260466456413269, 0.19432799518108368, 0.21321044862270355, 0.34348154067993164, -0.20663942396640778, 0.23054461181163788, 
  0.16871795058250427, -0.33216151595115662, -0.26002934575080872, 0.016416026279330254, 0.24758629500865936, -0.36173325777053833, -0.2471199631690979, -0.23195280134677887, -0.30765098333358765, -0.2625349760055542, 0.23109902441501617, -0.02929564006626606, -0.22634664177894592, -0.25088828802108765, -0.31341323256492615, 0.21844048798084259, 0.14908888936042786, -0.15155050158500671, 0.25567647814750671, 0.23168948292732239, 0.15934288501739502, 0.075393624603748322, -0.076448984444141388, 0.039020348340272903, -0.060134962201118469, -0.19834348559379578, -0.13206347823143005, 0.31183168292045593, -0.232136070728302, -0.16893713176250458, 
  0.23933856189250946, -0.037251736968755722, 0.18045620620250702, 0.0020206870976835489, 0.1300709992647171, -0.18582078814506531, -0.35930165648460388, -0.10596113651990891, 0.064205974340438843, 0.094415150582790375, 0.26304858922958374, -0.27249383926391602, -0.3630087673664093, -0.012575852684676647, 0.24495817720890045, -0.37153103947639465, 0.17113113403320312, -0.15967956185340881, 0.019055237993597984, 0.14050814509391785, 0.015717880800366402, 0.1435091495513916, -0.24633023142814636, 0.23683430254459381, 0.021957339718937874, 0.088173970580101013, -0.31483948230743408, -0.22709016501903534, 0.11003122478723526, -0.085601620376110077, 
  -0.20730343461036682, -0.16960982978343964, -0.10109487175941467, -0.12526713311672211, 0.27106243371963501, 0.19782240688800812, -0.06558091938495636, -0.062500409781932831, -0.15988601744174957, -0.1461264044046402, 0.24994184076786041, 0.20683465898036957, -0.40455156564712524, 0.11556301265954971, -0.34850201010704041, 0.046690702438354492, 0.17095039784908295, -0.27385300397872925, -0.21029113233089447, -0.040841788053512573, 0.026593159884214401, -0.17712275683879852, -0.43538603186607361, -0.10356751829385757, 0.0021604730281978846, 0.041723009198904037, 0.0044061820954084396, 0.31259310245513916, 0.13532368838787079, -0.093744121491909027, 
  -0.2253011167049408, -0.029687322676181793, 0.3490568995475769, 0.17242124676704407, -0.096101962029933929, 0.13349828124046326, 0.29865700006484985, -0.13086511194705963, -0.3145085871219635, -0.0043181595392525196, -0.30747067928314209, 0.09550970047712326, 0.57087165117263794, 0.014232652261853218, 0.95981669425964355, 0.24867941439151764, -0.064170114696025848, 0.15840260684490204, -0.025284474715590477, -0.12469854205846786, -0.27943187952041626, -0.014527201652526855, -0.066197037696838379, -0.054753381758928299, 0.049614008516073227, 0.077027954161167145, 0.037386335432529449, 0.017840521410107613, -0.11655876785516739, 0.016065271571278572, 
  -0.037709183990955353, 0.0099053680896759033, -0.25100749731063843, 0.16750669479370117, 0.29572400450706482, -0.0021700644865632057, -0.20017565786838531, -0.33499720692634583, 0.26358050107955933, 0.062443777918815613, 0.19769740104675293, -0.27208361029624939, 0.54742306470870972, 0.0064402786083519459, 1.0587462186813354, -0.053884226828813553, 0.014966619201004505, 0.064831644296646118, -0.016263434663414955, -0.32998916506767273, 0.19190189242362976, 0.1508125513792038, 0.11531315743923187, -0.21689437329769135, -0.15389636158943176, 0.13166379928588867, 0.17368824779987335, 0.028956511989235878, 0.030132405459880829, -0.1024850457906723, 
  -0.047079615294933319, 0.0415632463991642, -0.20396183431148529, 0.061464335769414902, -0.34463250637054443, -0.26090332865715027, 0.15816164016723633, -0.0084419259801506996, 0.054724477231502533, 0.013310657814145088, -0.93229854106903076, -0.091776341199874878, -0.30884075164794922, -0.82521390914916992, -0.17062537372112274, -0.17649444937705994, -0.18307209014892578, 0.1159578263759613, 0.028686106204986572, 0.015013846568763256, 0.22960899770259857, 0.23548679053783417, 0.12856543064117432, 0.021803239360451698, -0.22343230247497559, 0.023180961608886719, -0.10417154431343079, -0.27720734477043152, -0.051414143294095993, -0.19765634834766388, 
  0.031562712043523788, 0.201126828789711, -0.056406274437904358, -0.15329821407794952, -0.24252328276634216, -0.2669309675693512, -0.11630172282457352, -0.21409565210342407, 0.2951817512512207, -0.29800340533256531, 0.27399748563766479, 0.21145281195640564, 0.19828647375106812, 0.20571433007717133, -0.1635955274105072, 0.011758851818740368, 0.28913679718971252, 0.12743860483169556, -0.1035749763250351, 0.11554259806871414, 0.06475907564163208, 0.083158642053604126, 0.31177172064781189, 0.23941545188426971, 0.027049938216805458, -0.12794756889343262, 0.2697063684463501, 0.30439832806587219, 0.13095514476299286, -0.076800048351287842, 
  0.20418401062488556, -0.0031344068702310324, 0.4329666793346405, -0.034947030246257782, 0.35605007410049438, -0.024541795253753662, -0.20877227187156677, -0.10101091116666794, 0.35543110966682434, -0.045162186026573181, -0.17317309975624084, 0.28959861397743225, 0.75514483451843262, -0.18111763894557953, 1.3337305784225464, -0.30434113740921021, -0.093088701367378235, 0.30281996726989746, 0.25510880351066589, -0.049395039677619934, 0.2650013267993927, 0.34272953867912292, -0.16059078276157379, -0.25619474053382874, -0.083826526999473572, 0.023654213175177574, -0.17345032095909119, 0.096183642745018005, -0.33048757910728455, -0.041086591780185699, 
  -0.071818344295024872, -0.30530321598052979, 0.11831914633512497, 0.23800531029701233, -0.2451145350933075, 0.11412602663040161, -0.23250091075897217, 0.32665067911148071, 0.093630999326705933, -0.23629029095172882, 0.25967761874198914, 0.31703278422355652, -0.23683981597423553, 0.28301498293876648, 0.081259831786155701, 0.045800715684890747, -0.049341894686222076, -0.23941366374492645, 0.20683953166007996, -0.25385758280754089, -0.082854345440864563, 0.24588638544082642, -0.32523590326309204, 0.014015661552548409, 0.27696102857589722, -0.19616886973381042, -0.058748431503772736, 0.01926419697701931, -0.2958105206489563, -0.067465879023075104, 
  0.03988281637430191, -0.20960244536399841, 0.42857840657234192, -0.0083833690732717514, 0.348012775182724, -0.30005329847335815, 0.13910701870918274, 0.057706877589225769, -0.25470215082168579, 0.09496617317199707, 0.34972140192985535, 0.35423487424850464, 0.016733670607209206, -0.23179125785827637, 0.43765071034431458, -0.50268954038619995, -0.0068864789791405201, 0.15478847920894623, -0.018077544867992401, 0.19144117832183838, 0.0092331310734152794, 0.27925899624824524, -0.50132346153259277, -0.14203207194805145, 0.20962721109390259, 0.23633679747581482, -0.048402070999145508, -0.17005206644535065, -0.16224072873592377, -0.10920249670743942, 
  0.27578875422477722, 0.0036454712972044945, -0.036059323698282242, -0.067954748868942261, -0.29612687230110168, 0.31661483645439148, 0.15806621313095093, 0.26797863841056824, -0.07838788628578186, 0.23158852756023407, 0.1880713552236557, 0.026895083487033844, -0.16428972780704498, -0.3054254949092865, -0.49755087494850159, 0.31182846426963806, -0.08963765949010849, 0.27831366658210754, 0.18890358507633209, -0.061428908258676529, 0.098513096570968628, 0.30180737376213074, 0.27623024582862854, 0.32159096002578735, 0.073149770498275757, 0.051723603159189224, 0.2431177943944931, 0.3511422872543335, -0.16999310255050659, 0.033183716237545013, 
  -0.094423748552799225, 0.18963532149791718, 0.021249447017908096, 0.16258512437343597, 0.26130881905555725, 0.20015987753868103, -0.018546931445598602, -0.1176641583442688, -0.14288611710071564, -0.14289556443691254, 0.11808627843856812, 0.20704300701618195, 0.63286209106445312, -0.25914877653121948, 0.90441149473190308, -0.23379558324813843, 0.29554480314254761, -0.20693664252758026, 0.074030362069606781, -0.28083446621894836, -0.18360915780067444, -0.050460230559110641, 0.13824084401130676, 0.28946858644485474, 0.27597659826278687, -0.2193799763917923, -0.14480981230735779, 0.21318349242210388, -0.20567917823791504, 0.13681033253669739, 
  0.30705112218856812, -0.33537706732749939, -0.10420956462621689, -0.254842609167099, 0.20219072699546814, 0.31221896409988403, 0.0043760729022324085, -0.18935628235340118, 0.075731873512268066, 0.16599608957767487, 0.16143421828746796, -0.31701380014419556, 0.041975963860750198, 0.02361442893743515, 0.11067298799753189, 0.12717385590076447, -0.060105513781309128, -0.2270149290561676, 0.041688054800033569, 0.17499825358390808, -0.014055908657610416, 0.015693074092268944, 0.21972151100635529, 0.020586347207427025, 0.1326984167098999, -0.025917358696460724, 0.20681452751159668, 0.19045199453830719, 0.013685597106814384, -0.10978240519762039, 
  0.19717994332313538, 0.10434886813163757, -0.044697124511003494, -0.34556794166564941, -0.25196912884712219, 0.22362856566905975, 0.30039629340171814, 0.082121372222900391, 0.25093117356300354, -0.011544212698936462, 0.091032922267913818, 0.010549421422183514, 0.24065260589122772, 0.25612854957580566, 0.47736459970474243, -0.2943267822265625, 0.040756057947874069, -0.079420164227485657, -0.083570733666419983, -0.28491821885108948, 0.27980202436447144, -0.30450344085693359, -0.29704630374908447, -0.23136088252067566, -0.25662419199943542, 0.29989218711853027, -0.37562358379364014, 0.086195193231105804, 0.05012555792927742, -0.083527587354183197, 
  0.095566317439079285, 0.1952887624502182, 0.20668481290340424, -0.20651993155479431, -0.14612728357315063, 0.083752863109111786, -0.11869274079799652, -0.0041382214985787868, 0.2458663135766983, 0.30081239342689514, -0.035299375653266907, 0.28383773565292358, 0.23505957424640656, -0.29942372441291809, 0.17842258512973785, -0.33502620458602905, 0.19782985746860504, -0.19433644413948059, 0.030315494164824486, -0.048163659870624542, -0.11207813024520874, 0.10240665078163147, -0.0133609464392066, -0.13507318496704102, 0.30914044380187988, -0.12155020982027054, -0.15410047769546509, -0.13036920130252838, -0.15758624672889709, -0.22827917337417603, 
};
const TfArray<2, int> tensor_dimension6 = { 2, { 20,30 } };
const ALIGN(8) float tensor_data7[10*20] = { 
  -0.20859237015247345, -0.3482709527015686, -0.19227489829063416, -0.12996770441532135, 0.078447610139846802, -0.45527073740959167, -0.070699281990528107, -0.38058990240097046, -0.36205720901489258, -0.35491815209388733, 0.34639695286750793, -0.0093081118538975716, 0.038713295012712479, -0.035539060831069946, -0.065977208316326141, 0.10840813815593719, -0.25747448205947876, -0.11970166116952896, -0.40339645743370056, 0.32535308599472046, 
  0.20757047832012177, 0.20187139511108398, 0.090547993779182434, -0.34665793180465698, -0.31527811288833618, 0.11548394709825516, 0.18166235089302063, -0.0030039874836802483, -0.1137159988284111, 0.012514873407781124, -0.065794281661510468, 0.29242819547653198, -0.1323942095041275, 0.22987562417984009, 0.31462189555168152, -0.16770732402801514, -0.19563841819763184, -0.18426316976547241, 0.31920075416564941, -0.2868991494178772, 
  -0.37761974334716797, 0.22590290009975433, 0.21361184120178223, 0.023536665365099907, 0.29802232980728149, 0.3438732922077179, 0.33530089259147644, 0.087234757840633392, 0.036507707089185715, 0.27084255218505859, 0.028661947697401047, 0.26247289776802063, -0.43633106350898743, 0.099302574992179871, 0.40675446391105652, -0.093262448906898499, 0.035142030566930771, 0.21587061882019043, -0.18337000906467438, 0.18896679580211639, 
  -0.40146219730377197, 0.25790917873382568, -0.043639052659273148, 0.29420521855354309, -0.35274752974510193, 0.36195147037506104, 0.17510637640953064, -0.099646568298339844, 0.32032877206802368, -0.046127855777740479, 0.31623640656471252, 0.044507276266813278, -0.54561090469360352, -0.20281596481800079, -0.17858694493770599, -0.10915306210517883, 0.18718093633651733, 0.28570786118507385, -0.33070561289787292, 0.087582722306251526, 
  0.02173997089266777, 0.19722308218479156, -0.36197525262832642, 0.13730758428573608, 0.026865242049098015, -0.31893059611320496, 0.21848388016223907, -0.55784547328948975, -0.012843606062233448, -0.0094509273767471313, 0.33975234627723694, -0.51624143123626709, 0.03765864297747612, -0.41845187544822693, -0.31124332547187805, 0.27374809980392456, 0.025447133928537369, -0.31213551759719849, -0.38247665762901306, 0.14406313002109528, 
  -0.036878254264593124, -0.0087825106456875801, 0.26290205121040344, -0.48024573922157288, -0.13953210413455963, 0.00045794798643328249, -0.38333067297935486, -0.048428494483232498, 0.22426201403141022, 0.15904031693935394, -0.66477310657501221, -0.14452880620956421, 0.22051733732223511, -0.43265363574028015, 0.13542778789997101, -0.083583593368530273, 0.3651672899723053, 0.05971594899892807, 0.20821936428546906, 0.25559580326080322, 
  -0.44137787818908691, -0.031257964670658112, 0.030877221375703812, 0.17167235910892487, 0.070921063423156738, 0.33400723338127136, 0.26524928212165833, 0.3612934947013855, 0.112985759973526, 0.1435864120721817, 0.24305520951747894, 0.22652736306190491, 1.1029126644134521, 0.28734943270683289, -0.44606119394302368, -0.17316849529743195, -0.23209962248802185, -0.048589788377285004, 0.034507583826780319, 0.35261225700378418, 
  0.3178153932094574, 0.042893540114164352, -0.11545147001743317, 0.34319540858268738, -0.16840669512748718, -0.27422663569450378, -0.28160059452056885, -0.033778537064790726, 0.39203926920890808, 0.17696842551231384, -0.34140953421592712, 0.14660570025444031, 0.41240662336349487, -0.36460956931114197, 0.028736138716340065, -0.31261730194091797, -0.22679568827152252, -0.35518765449523926, 0.074824802577495575, 0.27613171935081482, 
  0.026331007480621338, 0.16481751203536987, 0.045439004898071289, -0.34156602621078491, -0.27097016572952271, 0.29304587841033936, -0.26730558276176453, 0.21894985437393188, -0.3177451491355896, -0.3881135880947113, -0.26950651407241821, 0.17356729507446289, -0.0090531408786773682, -0.37552237510681152, -0.41644668579101562, -0.3024590015411377, -0.34292984008789062, -0.27840107679367065, -0.066661447286605835, 0.070014476776123047, 
  0.25498351454734802, -0.074341528117656708, -0.29155158996582031, 0.35211089253425598, -0.26545634865760803, -0.072635367512702942, 0.28952255845069885, -0.40978297591209412, -0.0087366802617907524, 0.36721423268318176, 0.077149465680122375, -0.27814173698425293, 0.30830177664756775, 0.0089315129444003105, 0.033513858914375305, 0.020592188462615013, -0.0065705021843314171, -0.33255612850189209, 0.065294839441776276, -0.047951392829418182, 
};
const TfArray<2, int> tensor_dimension7 = { 2, { 10,20 } };
const ALIGN(8) float tensor_data8[6*10] = { 
  0.13125929236412048, -0.24074281752109528, -0.35202780365943909, 0.018926840275526047, 0.40646645426750183, -0.13170602917671204, -0.35894531011581421, 0.3126775324344635, -0.10975462198257446, 0.15687280893325806, 
  -0.27482137084007263, 0.37285178899765015, -0.51030254364013672, 0.32334712147712708, 0.21983978152275085, -0.29090675711631775, -0.066436819732189178, -0.43209290504455566, -0.43002104759216309, -0.51890885829925537, 
  -0.24960243701934814, -0.54011207818984985, -0.60607713460922241, -0.58455467224121094, -0.62052655220031738, 0.40308603644371033, -0.2644849419593811, 0.28549054265022278, -0.1130317747592926, 0.48699185252189636, 
  0.1562180370092392, -0.0020339887123554945, -0.29376175999641418, -0.69572174549102783, -0.37469536066055298, 0.24793176352977753, -0.44190678000450134, -0.52148717641830444, -0.47473427653312683, -0.51572549343109131, 
  0.33403214812278748, -0.37001970410346985, -0.23397040367126465, -0.6884496808052063, 0.21105650067329407, 0.1494985967874527, -0.51333320140838623, -0.47921499609947205, 0.59499949216842651, -0.75252330303192139, 
  -0.45808178186416626, 0.37490794062614441, -0.53715932369232178, 0.15536274015903473, 0.36545929312705994, -0.31712859869003296, -0.34032776951789856, 0.33153527975082397, -0.37427523732185364, -0.41681003570556641, 
};
const TfArray<2, int> tensor_dimension8 = { 2, { 6,10 } };
const TfArray<2, int> tensor_dimension9 = { 2, { 1,30 } };
const TfArray<2, int> tensor_dimension10 = { 2, { 1,20 } };
const TfArray<2, int> tensor_dimension11 = { 2, { 1,10 } };
const TfArray<2, int> tensor_dimension12 = { 2, { 1,6 } };
const TfArray<2, int> tensor_dimension13 = { 2, { 1,6 } };
const TfLiteFullyConnectedParams opdata0 = { kTfLiteActRelu, kTfLiteFullyConnectedWeightsFormatDefault, false, false };
const TfArray<3, int> inputs0 = { 3, { 0,5,1 } };
const TfArray<1, int> outputs0 = { 1, { 9 } };
const TfLiteFullyConnectedParams opdata1 = { kTfLiteActRelu, kTfLiteFullyConnectedWeightsFormatDefault, false, false };
const TfArray<3, int> inputs1 = { 3, { 9,6,2 } };
const TfArray<1, int> outputs1 = { 1, { 10 } };
const TfLiteFullyConnectedParams opdata2 = { kTfLiteActRelu, kTfLiteFullyConnectedWeightsFormatDefault, false, false };
const TfArray<3, int> inputs2 = { 3, { 10,7,3 } };
const TfArray<1, int> outputs2 = { 1, { 11 } };
const TfLiteFullyConnectedParams opdata3 = { kTfLiteActNone, kTfLiteFullyConnectedWeightsFormatDefault, false, false };
const TfArray<3, int> inputs3 = { 3, { 11,8,4 } };
const TfArray<1, int> outputs3 = { 1, { 12 } };
const TfLiteSoftmaxParams opdata4 = { 1 };
const TfArray<1, int> inputs4 = { 1, { 12 } };
const TfArray<1, int> outputs4 = { 1, { 13 } };
const TensorInfo_t tensorData[] = {
  { kTfLiteArenaRw, tensor_arena + 0, (TfLiteIntArray*)&tensor_dimension0, 264, },
  { kTfLiteMmapRo, (void*)tensor_data1, (TfLiteIntArray*)&tensor_dimension1, 120, },
  { kTfLiteMmapRo, (void*)tensor_data2, (TfLiteIntArray*)&tensor_dimension2, 80, },
  { kTfLiteMmapRo, (void*)tensor_data3, (TfLiteIntArray*)&tensor_dimension3, 40, },
  { kTfLiteMmapRo, (void*)tensor_data4, (TfLiteIntArray*)&tensor_dimension4, 24, },
  { kTfLiteMmapRo, (void*)tensor_data5, (TfLiteIntArray*)&tensor_dimension5, 7920, },
  { kTfLiteMmapRo, (void*)tensor_data6, (TfLiteIntArray*)&tensor_dimension6, 2400, },
  { kTfLiteMmapRo, (void*)tensor_data7, (TfLiteIntArray*)&tensor_dimension7, 800, },
  { kTfLiteMmapRo, (void*)tensor_data8, (TfLiteIntArray*)&tensor_dimension8, 240, },
  { kTfLiteArenaRw, tensor_arena + 272, (TfLiteIntArray*)&tensor_dimension9, 120, },
  { kTfLiteArenaRw, tensor_arena + 0, (TfLiteIntArray*)&tensor_dimension10, 80, },
  { kTfLiteArenaRw, tensor_arena + 80, (TfLiteIntArray*)&tensor_dimension11, 40, },
  { kTfLiteArenaRw, tensor_arena + 32, (TfLiteIntArray*)&tensor_dimension12, 24, },
  { kTfLiteArenaRw, tensor_arena + 0, (TfLiteIntArray*)&tensor_dimension13, 24, },
};const NodeInfo_t nodeData[] = {
  { (TfLiteIntArray*)&inputs0, (TfLiteIntArray*)&outputs0, const_cast<void*>(static_cast<const void*>(&opdata0)), OP_FULLY_CONNECTED, },
  { (TfLiteIntArray*)&inputs1, (TfLiteIntArray*)&outputs1, const_cast<void*>(static_cast<const void*>(&opdata1)), OP_FULLY_CONNECTED, },
  { (TfLiteIntArray*)&inputs2, (TfLiteIntArray*)&outputs2, const_cast<void*>(static_cast<const void*>(&opdata2)), OP_FULLY_CONNECTED, },
  { (TfLiteIntArray*)&inputs3, (TfLiteIntArray*)&outputs3, const_cast<void*>(static_cast<const void*>(&opdata3)), OP_FULLY_CONNECTED, },
  { (TfLiteIntArray*)&inputs4, (TfLiteIntArray*)&outputs4, const_cast<void*>(static_cast<const void*>(&opdata4)), OP_SOFTMAX, },
};
static std::vector<void*> overflow_buffers;
static void * AllocatePersistentBuffer(struct TfLiteContext* ctx,
                                       size_t bytes) {
  void *ptr;
  if (current_location - bytes < tensor_boundary) {
    // OK, this will look super weird, but.... we have CMSIS-NN buffers which
    // we cannot calculate beforehand easily.
    ptr = ei_calloc(bytes, 1);
    if (ptr == NULL) {
      printf("ERR: Failed to allocate persistent buffer of size %d\n", (int)bytes);
      return NULL;
    }
    overflow_buffers.push_back(ptr);
    return ptr;
  }

  current_location -= bytes;

  ptr = current_location;
  memset(ptr, 0, bytes);

  return ptr;
}
typedef struct {
  size_t bytes;
  void *ptr;
} scratch_buffer_t;
static std::vector<scratch_buffer_t> scratch_buffers;

static TfLiteStatus RequestScratchBufferInArena(struct TfLiteContext* ctx, size_t bytes,
                                                int* buffer_idx) {
  scratch_buffer_t b;
  b.bytes = bytes;

  b.ptr = AllocatePersistentBuffer(ctx, b.bytes);
  if (!b.ptr) {
    return kTfLiteError;
  }

  scratch_buffers.push_back(b);

  *buffer_idx = scratch_buffers.size() - 1;

  return kTfLiteOk;
}

static void* GetScratchBuffer(struct TfLiteContext* ctx, int buffer_idx) {
  if (buffer_idx > static_cast<int>(scratch_buffers.size()) - 1) {
    return NULL;
  }
  return scratch_buffers[buffer_idx].ptr;
}

static TfLiteTensor* GetTensor(const struct TfLiteContext* context,
                               int tensor_idx) {
  return &tflTensors[tensor_idx];
}

static TfLiteEvalTensor* GetEvalTensor(const struct TfLiteContext* context,
                                       int tensor_idx) {
  return &tflEvalTensors[tensor_idx];
}

} // namespace

TfLiteStatus trained_model_init( void*(*alloc_fnc)(size_t,size_t) ) {
#ifdef EI_CLASSIFIER_ALLOCATION_HEAP
  tensor_arena = (uint8_t*) alloc_fnc(16, kTensorArenaSize);
  if (!tensor_arena) {
    printf("ERR: failed to allocate tensor arena\n");
    return kTfLiteError;
  }
#else
  memset(tensor_arena, 0, kTensorArenaSize);
#endif
  tensor_boundary = tensor_arena;
  current_location = tensor_arena + kTensorArenaSize;
  ctx.AllocatePersistentBuffer = &AllocatePersistentBuffer;
  ctx.RequestScratchBufferInArena = &RequestScratchBufferInArena;
  ctx.GetScratchBuffer = &GetScratchBuffer;
  ctx.GetTensor = &GetTensor;
  ctx.GetEvalTensor = &GetEvalTensor;
  ctx.tensors = tflTensors;
  ctx.tensors_size = 14;
  for(size_t i = 0; i < 14; ++i) {
    tflTensors[i].type = kTfLiteFloat32;
    tflEvalTensors[i].type = kTfLiteFloat32;
    tflTensors[i].is_variable = 0;

#if defined(EI_CLASSIFIER_ALLOCATION_HEAP)
    tflTensors[i].allocation_type = tensorData[i].allocation_type;
#else
    tflTensors[i].allocation_type = (tensor_arena <= tensorData[i].data && tensorData[i].data < tensor_arena + kTensorArenaSize) ? kTfLiteArenaRw : kTfLiteMmapRo;
#endif
    tflTensors[i].bytes = tensorData[i].bytes;
    tflTensors[i].dims = tensorData[i].dims;
    tflEvalTensors[i].dims = tensorData[i].dims;

#if defined(EI_CLASSIFIER_ALLOCATION_HEAP)
    if(tflTensors[i].allocation_type == kTfLiteArenaRw){
      uint8_t* start = (uint8_t*) ((uintptr_t)tensorData[i].data + (uintptr_t) tensor_arena);

     tflTensors[i].data.data =  start;
     tflEvalTensors[i].data.data =  start;
    }
    else{
       tflTensors[i].data.data = tensorData[i].data;
       tflEvalTensors[i].data.data = tensorData[i].data;
    }
#else
    tflTensors[i].data.data = tensorData[i].data;
    tflEvalTensors[i].data.data = tensorData[i].data;
#endif // EI_CLASSIFIER_ALLOCATION_HEAP
    tflTensors[i].quantization.type = kTfLiteNoQuantization;
    if (tflTensors[i].allocation_type == kTfLiteArenaRw) {
      auto data_end_ptr = (uint8_t*)tflTensors[i].data.data + tensorData[i].bytes;
      if (data_end_ptr > tensor_boundary) {
        tensor_boundary = data_end_ptr;
      }
    }
  }
  if (tensor_boundary > current_location /* end of arena size */) {
    printf("ERR: tensor arena is too small, does not fit model - even without scratch buffers\n");
    return kTfLiteError;
  }
  registrations[OP_FULLY_CONNECTED] = Register_FULLY_CONNECTED();
  registrations[OP_SOFTMAX] = Register_SOFTMAX();

  for(size_t i = 0; i < 5; ++i) {
    tflNodes[i].inputs = nodeData[i].inputs;
    tflNodes[i].outputs = nodeData[i].outputs;
    tflNodes[i].builtin_data = nodeData[i].builtin_data;
    tflNodes[i].custom_initial_data = nullptr;
    tflNodes[i].custom_initial_data_size = 0;
    if (registrations[nodeData[i].used_op_index].init) {
      tflNodes[i].user_data = registrations[nodeData[i].used_op_index].init(&ctx, (const char*)tflNodes[i].builtin_data, 0);
    }
  }
  for(size_t i = 0; i < 5; ++i) {
    if (registrations[nodeData[i].used_op_index].prepare) {
      TfLiteStatus status = registrations[nodeData[i].used_op_index].prepare(&ctx, &tflNodes[i]);
      if (status != kTfLiteOk) {
        return status;
      }
    }
  }
  return kTfLiteOk;
}

static const int inTensorIndices[] = {
  0, 
};
TfLiteTensor* trained_model_input(int index) {
  return &ctx.tensors[inTensorIndices[index]];
}

static const int outTensorIndices[] = {
  13, 
};
TfLiteTensor* trained_model_output(int index) {
  return &ctx.tensors[outTensorIndices[index]];
}

TfLiteStatus trained_model_invoke() {
  for(size_t i = 0; i < 5; ++i) {
    TfLiteStatus status = registrations[nodeData[i].used_op_index].invoke(&ctx, &tflNodes[i]);

#if EI_CLASSIFIER_PRINT_STATE
    ei_printf("layer %lu\n", i);
    ei_printf("    inputs:\n");
    for (size_t ix = 0; ix < tflNodes[i].inputs->size; ix++) {
      auto d = tensorData[tflNodes[i].inputs->data[ix]];

      size_t data_ptr = (size_t)d.data;

      if (d.allocation_type == kTfLiteArenaRw) {
        data_ptr = (size_t)tensor_arena + data_ptr;
      }

      if (d.type == TfLiteType::kTfLiteInt8) {
        int8_t* data = (int8_t*)data_ptr;
        ei_printf("        %lu (%zu bytes, ptr=%p, alloc_type=%d, type=%d): ", ix, d.bytes, data, (int)d.allocation_type, (int)d.type);
        for (size_t jx = 0; jx < d.bytes; jx++) {
          ei_printf("%d ", data[jx]);
        }
      }
      else {
        float* data = (float*)data_ptr;
        ei_printf("        %lu (%zu bytes, ptr=%p, alloc_type=%d, type=%d): ", ix, d.bytes, data, (int)d.allocation_type, (int)d.type);
        for (size_t jx = 0; jx < d.bytes / 4; jx++) {
          ei_printf("%f ", data[jx]);
        }
      }
      ei_printf("\n");
    }
    ei_printf("\n");

    ei_printf("    outputs:\n");
    for (size_t ix = 0; ix < tflNodes[i].outputs->size; ix++) {
      auto d = tensorData[tflNodes[i].outputs->data[ix]];

      size_t data_ptr = (size_t)d.data;

      if (d.allocation_type == kTfLiteArenaRw) {
        data_ptr = (size_t)tensor_arena + data_ptr;
      }

      if (d.type == TfLiteType::kTfLiteInt8) {
        int8_t* data = (int8_t*)data_ptr;
        ei_printf("        %lu (%zu bytes, ptr=%p, alloc_type=%d, type=%d): ", ix, d.bytes, data, (int)d.allocation_type, (int)d.type);
        for (size_t jx = 0; jx < d.bytes; jx++) {
          ei_printf("%d ", data[jx]);
        }
      }
      else {
        float* data = (float*)data_ptr;
        ei_printf("        %lu (%zu bytes, ptr=%p, alloc_type=%d, type=%d): ", ix, d.bytes, data, (int)d.allocation_type, (int)d.type);
        for (size_t jx = 0; jx < d.bytes / 4; jx++) {
          ei_printf("%f ", data[jx]);
        }
      }
      ei_printf("\n");
    }
    ei_printf("\n");
#endif // EI_CLASSIFIER_PRINT_STATE

    if (status != kTfLiteOk) {
      return status;
    }
  }
  return kTfLiteOk;
}

TfLiteStatus trained_model_reset( void (*free_fnc)(void* ptr) ) {
#ifdef EI_CLASSIFIER_ALLOCATION_HEAP
  free_fnc(tensor_arena);
#endif
  scratch_buffers.clear();
  for (size_t ix = 0; ix < overflow_buffers.size(); ix++) {
    free(overflow_buffers[ix]);
  }
  overflow_buffers.clear();
  return kTfLiteOk;
}
